Neural network model definition file
===

A description of the model. You must not use &num; and &dollar; characters.
If you need these characters, type `&num;` and `&dollar;` instead.

Threshold values
---

| Class transition | Min  | Max  | Mean |
|------------------|------|------|------|
| 1-2              | 1.42 | 1.94 | 1.68 |
| 2-3              | 2.16 | 2.58 | 2.37 |
| 3-4              | 3.20 | 4.00 | 3.60 |
| 4-5              | 4.62 | 4.96 | 4.79 |
| 5-6              | 5.06 | 5.26 | 5.16 |

The table above lists threshold values manually derived from the violin plot
using <https://automeris.io/WebPlotDigitizer/>.

![violin plot](class-violin-training-sequential-i21x42x8x4x2o1-5489.png)


UUID
---

A unique identifier of this model definition file.

```
uuid: 87ef0194-d88d-448e-ae61-e127fc2115f5
```

Statistics
---

Training and validation statistics.

```
{
  "class:training:residuals:mean": -0.011101096505758839,
  "class:training:residuals:std": 0.3679626462154815,
  "class:training:residuals:max": 4.99185574054718,
  "class:training:residuals:mean:1": 0.07893566760648064,
  "class:training:residuals:std:1": 0.24382620454288548,
  "class:training:residuals:max:1": 3.5822529792785645,
  "class:training:residuals:mean:2": 0.0773880735295837,
  "class:training:residuals:std:2": 0.2264143981261703,
  "class:training:residuals:max:2": 2.861558437347412,
  "class:training:residuals:mean:3": -0.031387491915689535,
  "class:training:residuals:std:3": 0.5768995592266564,
  "class:training:residuals:max:3": 2.9948043823242188,
  "class:training:residuals:mean:4": 0.015369372050649619,
  "class:training:residuals:std:4": 0.5159019887238692,
  "class:training:residuals:max:4": 2.205103635787964,
  "class:training:residuals:mean:5": -0.05798482357789398,
  "class:training:residuals:std:5": 0.22774531323958647,
  "class:training:residuals:max:5": 3.882752537727356,
  "class:training:residuals:mean:6": -0.10152849182924495,
  "class:training:residuals:std:6": 0.3514504412251185,
  "class:training:residuals:max:6": 4.99185574054718
}
```

JSON
---

A representation of the model in JSON. To save (or load) a model to (or from) a JSON configuration, use:

```
config = model.to_json()
model = tf.keras.models.model_from_json(config)
```

The configuration of this model is:

```
{
  "class_name": "Sequential",
  "config": {
    "name": "sequential",
    "layers": [
      {
        "class_name": "InputLayer",
        "config": {
          "batch_input_shape": [
            null,
            21
          ],
          "dtype": "float32",
          "sparse": false,
          "ragged": false,
          "name": "inputs"
        }
      },
      {
        "class_name": "LognormalNoise",
        "config": {
          "name": "lognormal_noise",
          "trainable": true,
          "dtype": "float32",
          "std": 0.0035360678925035363,
          "seed": null
        }
      },
      {
        "class_name": "UnitRescaling",
        "config": {
          "n": 21,
          "a": [
            [
              0.0,
              0.0,
              0.0,
              0.0,
              0.0,
              0.0,
              0.0,
              0.0,
              0.0,
              0.0,
              0.0,
              0.0,
              0.0,
              0.0,
              0.0,
              0.0,
              0.0,
              0.0,
              0.0,
              0.0,
              0.0
            ]
          ],
          "b": [
            [
              1.0,
              1.0,
              1.0,
              1.0,
              1.0,
              1.0,
              1.0,
              1.0,
              1.0,
              1.0,
              1.0,
              1.0,
              1.0,
              1.0,
              1.0,
              1.0,
              1.0,
              1.0,
              1.0,
              1.0,
              1.0
            ]
          ],
          "signed": false,
          "invert": false,
          "name": "02_unit_rescaling"
        }
      },
      {
        "class_name": "Dense",
        "config": {
          "name": "03_dense",
          "trainable": true,
          "dtype": "float32",
          "units": 42,
          "activation": "sigmoid",
          "use_bias": true,
          "kernel_initializer": {
            "class_name": "GlorotNormal",
            "config": {
              "seed": null
            }
          },
          "bias_initializer": {
            "class_name": "Zeros",
            "config": {}
          },
          "kernel_regularizer": {
            "class_name": "OrthogonalRegularizer",
            "config": {
              "factor": 0.009999999776482582,
              "mode": "rows"
            }
          },
          "bias_regularizer": null,
          "activity_regularizer": null,
          "kernel_constraint": null,
          "bias_constraint": null
        }
      },
      {
        "class_name": "Dense",
        "config": {
          "name": "04_dense",
          "trainable": true,
          "dtype": "float32",
          "units": 8,
          "activation": "sigmoid",
          "use_bias": true,
          "kernel_initializer": {
            "class_name": "GlorotNormal",
            "config": {
              "seed": null
            }
          },
          "bias_initializer": {
            "class_name": "Zeros",
            "config": {}
          },
          "kernel_regularizer": {
            "class_name": "OrthogonalRegularizer",
            "config": {
              "factor": 0.009999999776482582,
              "mode": "rows"
            }
          },
          "bias_regularizer": null,
          "activity_regularizer": null,
          "kernel_constraint": null,
          "bias_constraint": null
        }
      },
      {
        "class_name": "Dense",
        "config": {
          "name": "05_dense",
          "trainable": true,
          "dtype": "float32",
          "units": 4,
          "activation": "sigmoid",
          "use_bias": true,
          "kernel_initializer": {
            "class_name": "GlorotNormal",
            "config": {
              "seed": null
            }
          },
          "bias_initializer": {
            "class_name": "Zeros",
            "config": {}
          },
          "kernel_regularizer": {
            "class_name": "OrthogonalRegularizer",
            "config": {
              "factor": 0.009999999776482582,
              "mode": "rows"
            }
          },
          "bias_regularizer": null,
          "activity_regularizer": null,
          "kernel_constraint": null,
          "bias_constraint": null
        }
      },
      {
        "class_name": "Dense",
        "config": {
          "name": "06_dense",
          "trainable": true,
          "dtype": "float32",
          "units": 2,
          "activation": "sigmoid",
          "use_bias": true,
          "kernel_initializer": {
            "class_name": "GlorotNormal",
            "config": {
              "seed": null
            }
          },
          "bias_initializer": {
            "class_name": "Zeros",
            "config": {}
          },
          "kernel_regularizer": {
            "class_name": "OrthogonalRegularizer",
            "config": {
              "factor": 0.009999999776482582,
              "mode": "rows"
            }
          },
          "bias_regularizer": null,
          "activity_regularizer": null,
          "kernel_constraint": null,
          "bias_constraint": null
        }
      },
      {
        "class_name": "Dense",
        "config": {
          "name": "07_dense",
          "trainable": true,
          "dtype": "float32",
          "units": 1,
          "activation": "sigmoid",
          "use_bias": true,
          "kernel_initializer": {
            "class_name": "GlorotNormal",
            "config": {
              "seed": null
            }
          },
          "bias_initializer": {
            "class_name": "Zeros",
            "config": {}
          },
          "kernel_regularizer": {
            "class_name": "OrthogonalRegularizer",
            "config": {
              "factor": 0.009999999776482582,
              "mode": "rows"
            }
          },
          "bias_regularizer": null,
          "activity_regularizer": null,
          "kernel_constraint": null,
          "bias_constraint": null
        }
      },
      {
        "class_name": "UnitRescaling",
        "config": {
          "n": 1,
          "a": [
            [
              1.0
            ]
          ],
          "b": [
            [
              6.0
            ]
          ],
          "signed": false,
          "invert": true,
          "name": "08_unit_rescaling"
        }
      }
    ]
  },
  "keras_version": "2.10.0",
  "backend": "tensorflow"
} 
```

SNNS
---

A representation of the model in custom Stuttgart Neural Network (SNN) Simulator format.

Helmut Schiller (deceased) used a streamlined SNN-based model for his feed-forward back-propagation (FFBP) neural network software. He developed a custom file format for storing his models, too, which is different from the original SNN format. We yet use the term SNN to refer to FFBP neural networks and file format because all artificial neural networks use feed-forwarding and back-propagation and, thus, these terms are not distinctive.

```
#
21
0.0 1.0
0.0 1.0
0.0 1.0
0.0 1.0
0.0 1.0
0.0 1.0
0.0 1.0
0.0 1.0
0.0 1.0
0.0 1.0
0.0 1.0
0.0 1.0
0.0 1.0
0.0 1.0
0.0 1.0
0.0 1.0
0.0 1.0
0.0 1.0
0.0 1.0
0.0 1.0
0.0 1.0
1
1.0 6.0
$
#planes=6 21 42 8 4 2 1 
bias 1 42
-2.7045722
1.1064508
3.7470975
-1.5926539
2.2416973
1.5306648
1.0386127
-0.16734487
1.9389093
0.63131905
-2.7902682
-0.59433365
-2.700838
-5.873304
3.7300549
2.405652
2.3102467
-1.7251989
-3.0225518
4.123722
0.84717846
-1.7947645
1.7521347
2.1078691
4.382956
-7.276033
2.5326564
-3.0054357
-1.2702467
-2.138683
3.46868
-4.906938
-3.988377
1.2674009
1.2609425
-3.18124
4.8783474
1.3255436
3.2381763
-1.1450833
-0.3067521
-0.778466
bias 2 8
0.5280598
0.26676777
0.2438962
0.03143679
0.8050391
1.2236862
0.685911
0.727955
bias 3 4
5.7412186
-0.4920409
-2.867382
4.5924544
bias 4 2
1.0373943
0.044899404
bias 5 1
-6.46234
wgt 0 21 42
1.7196957
2.1556554
2.2602534
-1.518432
-1.6682787
-5.0735397
-0.22011138
0.99737257
3.200191
2.683493
1.8436438
-2.5241213
-0.768607
0.77634555
-1.7918731
2.7691524
3.5859475
3.4776301
3.9557176
3.2660449
-6.22325
1.0425098
1.1801056
-0.44872043
-2.0362692
-2.0093014
-0.9829791
-1.9157525
0.5213553
1.388466
0.43541703
-0.9233915
-2.4493165
-2.034191
2.970825
0.16987011
-0.15069188
0.10935892
-0.88225615
2.463415
0.28044376
0.33007136
2.7128682
1.826709
-1.729535
-5.9802165
-5.3937345
-2.7507262
-1.8079386
-1.8483461
-1.7354577
-1.5509915
0.10137008
-0.11300009
-1.5984339
-1.779032
0.5312192
1.7241527
-3.268596
-0.16767763
3.6606426
1.4734529
5.144077
3.4140143
2.1319504
0.169233
-0.080421045
0.3965945
0.2076578
2.3579502
1.522882
2.081072
1.9617217
1.849839
2.6338654
-7.441982
-6.4275904
-0.67453486
-0.42685854
0.13994847
-0.8097572
-1.646636
4.1894712
-8.687721
-1.0735874
-0.22808437
0.6438609
-0.22086091
-0.3901496
-0.7520347
-0.4733676
-1.0717322
-0.34201393
0.7811999
0.5107872
-2.8205492
-0.6018866
0.8862635
-0.20521264
0.505243
-0.021173554
0.21825159
2.6802273
-1.3341118
-1.138131
-1.2281613
-0.65936303
-1.0669878
0.5710501
-0.009442702
1.9299563
0.2511555
-0.5507222
-0.86537963
-0.7688848
0.18124382
2.0736687
-7.5782456
-1.966358
0.5856102
3.011983
1.156341
1.5462619
2.793517
-8.9422865
-0.65904963
-1.1426681
-1.4717642
-0.8526377
-2.0016048
-0.8070002
-0.57400376
-1.3044628
-1.0871863
-0.71932966
-0.97660804
-1.9411145
-0.89202195
-1.01494
1.9412122
1.6487703
-0.2655631
0.8138283
0.49346456
5.259368
-0.18220836
0.57402813
3.8311744
3.7255833
1.5852858
-1.1492105
-0.96078134
-1.959534
0.8688327
-0.6852469
-1.9249102
-2.9685202
-0.16087775
1.8608164
1.6020386
0.78777695
1.1875993
-0.5088851
-1.6109592
-3.546509
-3.2107995
0.4459843
-0.19453904
1.4285109
1.4571462
1.167543
-1.4382448
-0.9690456
0.9302092
0.8482344
1.4739283
0.59058374
1.1453199
1.2644823
-3.1643
-3.657631
-1.2128648
-0.21347992
-2.6473153
-1.0182985
-0.58972186
-2.2860947
-5.529403
-3.6447036
-5.4835696
-3.0999122
0.29720536
2.8111334
2.4162107
1.7888172
-1.2325543
0.41762543
-0.123242825
-0.10408268
1.3232061
1.1092377
5.171826
0.9514714
-0.063492715
0.6864618
0.3870193
1.5787115
-2.5892498
-2.5250897
-0.81094116
0.7511819
0.9781894
0.20278019
-0.030167442
1.5949227
0.15273672
0.42269945
-1.3826969
-1.0550225
-0.60545355
-2.8327997
2.020379
-1.0646752
-0.14257647
1.14687
-0.714902
0.49795356
0.5806436
-1.8529956
1.1082683
2.4927018
-0.24476634
-0.63235104
-0.10791133
-1.6088681
-1.2884064
2.6053565
2.105301
1.1876245
0.78859735
0.6660833
1.1693093
-1.5587754
-0.8835707
-2.6260693
-0.43366843
2.2236195
-0.42092735
2.1634903
0.20780085
-3.2223485
5.6991796
-4.5747447
-2.590666
-1.376104
-0.0021428552
-1.3718482
-1.075941
0.8927603
-3.0095394
-1.3368186
-1.1788926
-3.046957
1.1213249
2.13356
1.6161989
0.83109623
-0.53298557
3.3275764
5.022115
6.891636
3.7227492
2.2228107
4.965986
5.493636
4.25994
4.0096974
2.084419
-2.1895869
-1.8925284
-2.287319
-0.22843572
-0.085298926
-0.1160207
-1.626001
9.786842
6.5254383
1.182039
0.5986154
1.7768832
1.8137358
-5.8031983
-12.635486
4.0495105
-1.3102328
-0.6281076
0.12283524
0.82417053
-0.7654291
-2.143374
-0.6816438
-2.5598485
-2.4419577
-2.7391305
-0.809657
-2.1864555
4.4468465
1.2738385
-1.8897599
-1.7304772
0.90831095
1.7253592
1.2860672
0.8952139
-1.1185528
-0.899391
-2.2566357
-1.0086961
-0.6367987
-1.0123876
-2.4148216
1.1259052
-0.73636425
-0.57636756
-0.82763684
-0.78564316
3.4525754
1.1075886
0.799609
1.3403857
-0.6429349
1.3680241
-2.4364498
-0.9751038
6.6000504
-3.1047451
4.0125484
2.8601522
2.355036
1.9376895
1.6694376
-0.35242543
0.587348
0.10385158
-0.69314086
-0.24391216
-2.03753
0.9179171
-2.3364518
-0.050131086
1.4055792
-2.4784086
-2.1407628
-3.7364995
-6.074418
-7.8786664
-4.3183575
-1.9873937
-0.39195845
0.91188323
-2.99887
-2.7086852
0.22509097
0.07036514
1.0056931
2.3005168
0.6407816
-0.18060443
1.570274
2.048004
1.2242104
2.6656313
2.6527743
-1.03986
0.34364378
-0.23547514
6.5198073
5.6141863
0.025904767
1.4132322
1.719851
-1.4020572
-3.3758895
-2.099693
-1.8566821
1.8152122
0.6523404
1.0135651
2.0830088
1.7718309
0.2705873
3.5085397
2.2967765
-4.397563
0.42984056
0.42376468
-2.3284066
2.454603
2.7471216
-3.8282557
-4.659936
-2.945109
1.6388863
1.0547382
4.790382
-0.03654297
0.678659
2.4398892
4.0689883
-0.42541862
-5.519964
10.115173
5.3891754
-1.1079459
-1.6670669
-5.503414
-5.6062136
-4.0483828
-3.1589909
-3.4902465
2.8755565
3.2609441
0.60497546
1.3996356
0.8083303
-1.2162749
-1.0960531
-1.0094728
-0.30809674
-0.59632576
-0.5966684
0.43787342
1.0483738
-0.5831002
-1.4826254
-2.7523918
-2.360239
-3.4672987
-0.9747716
5.400477
-4.436695
-4.8344254
-4.109152
-1.9591111
0.57241976
1.8142616
1.6075281
1.7476623
2.405048
1.7799019
1.8620378
1.2856067
1.0229573
2.184047
0.3687827
-0.97081876
-1.5498713
0.5007949
0.22366849
5.203575
9.930241
-1.4814371
-0.011853543
-0.6052151
1.8337865
1.2975283
3.0946352
5.3223553
-1.7012267
-4.484307
-3.1893342
-3.8914788
-1.0634686
-2.024366
3.7243843
0.7203922
-0.6664033
-1.2528629
-5.187777
-5.009066
-6.366948
3.5921872
3.0596628
-1.551818
1.3382638
-0.038063187
-0.6951636
-1.0450314
0.45513672
0.045078516
-0.008295495
0.42208618
-0.46970394
-3.978851
-3.1406412
3.3245986
2.3382661
-3.0977855
-2.296376
-0.3624565
1.3637574
-1.8765655
-0.9490609
10.293276
-1.9208405
-1.0482714
-0.0017534082
1.2950374
-0.7200392
-1.9056178
-1.1946315
-0.62000155
-0.7610064
-0.4577488
-0.73650503
2.879136
-4.485594
-3.148457
0.2194574
1.2911265
1.0011147
-0.8753611
-5.5477586
-10.402397
2.8667276
1.0439119
5.0811014
4.030995
4.556657
4.0568714
2.903411
1.5710968
1.4187992
1.762624
0.76442415
-0.9057184
-2.1116025
-4.976719
-0.7188408
-2.0628939
-1.4329544
-1.3408387
-1.5136927
1.3698
0.033324048
-5.398475
-4.3700876
-3.536265
-1.8440019
-1.0494
0.011673618
2.1004236
1.5418726
-0.4213922
0.010700607
-0.23284023
1.4512527
0.19033778
2.829876
1.663922
0.09735589
-0.11698334
-2.6356268
-2.7908278
0.43207026
1.3794409
-3.5981712
0.13324837
0.35720864
1.2738391
1.4277111
0.459719
0.20981179
3.291925
2.5651598
1.713944
0.97548234
0.29468122
-0.15196513
4.390356
3.5159247
-0.95399946
-3.4303372
-2.3279183
-3.9920716
-1.8276392
1.4855828
-1.2656621
1.01225
1.7273847
-0.07231464
0.52888817
0.22428948
-1.01328
-0.38642836
-0.4968936
-1.3587885
-2.146013
-2.0472994
1.7690401
3.4507742
0.25543123
0.526295
-0.4681931
1.0566334
1.1599771
-3.8271637
-1.6989354
3.460444
-1.6493379
-0.8943309
1.2963489
-4.293501
-3.720209
1.6191299
6.0293994
2.5946705
0.3504258
1.4639409
-1.1994765
4.328981
1.5851874
1.2184011
2.7147017
2.7545967
-1.0599124
-0.18403411
-1.3392048
3.0532095
4.8681927
0.8771164
-0.7873934
-1.626032
-3.7455902
-5.3120794
-4.481255
-1.8144574
-1.6972159
-1.7252699
-1.0339913
-0.42657056
-1.0074033
6.6094656
-2.1531582
-2.5146346
2.652104
2.206151
3.2844722
-0.5678142
3.4510815
2.5712535
1.7994505
1.3468835
-0.36371633
-3.3181949
-1.8908288
-3.8659077
-0.89616454
-0.9653806
0.9128153
1.1131129
1.4397343
6.6986833
5.1179748
2.6999936
3.79174
1.1811372
1.7202133
0.1442562
1.4730386
5.057531
-5.21983
-4.287965
-2.6373682
1.4098872
4.518575
4.2297225
0.58152485
-1.805882
-0.18489519
-2.9352198
-2.455506
1.0198725
4.25892
0.4387462
-0.85733074
0.029973563
-0.55719787
0.92614114
-1.0751996
2.0476384
6.8518696
5.0065684
-3.637402
-1.705024
2.01259
3.2105675
4.495046
2.9557915
2.6924615
1.955992
1.1270543
1.4427968
0.6410497
-1.1653663
9.000393
-1.1383433
-2.3125415
2.2342718
2.1934762
2.100776
-6.343417
-10.945761
-3.8601985
-3.9780445
-1.6275499
0.53108716
2.5780103
0.9108344
-0.48401463
-0.48326182
0.36549845
0.6477002
-0.4532122
1.5575967
2.2237434
-4.7191296
2.368651
1.980117
1.6240835
-0.2891955
-0.17453694
-3.3469
-13.644223
-1.2029817
-2.1262672
-0.21399117
-2.8534744
-1.7844307
-1.6023414
0.032745123
0.260104
1.173974
0.76579285
-0.525645
-0.7815788
1.8348771
3.8557858
-0.82782495
0.10510645
1.2344339
1.8591499
1.1993055
-2.6595252
3.88569
2.5526683
2.6927335
2.4047103
2.246382
1.7861834
0.60253584
-1.4694273
-0.53874785
-0.39781198
-1.9445808
-2.2683592
-0.004745154
0.047164813
-0.17753275
-1.3361876
-0.10327799
2.1205688
-1.994687
-3.1625144
-7.040594
2.4644437
-0.2900921
-2.8388577
-2.3212614
-0.7382138
0.36760476
-0.29167515
0.71323293
2.3553903
-0.11876985
0.5415649
0.13855241
0.8293759
-0.2456959
-0.68369937
1.2086244
0.9329382
-1.143
-0.67801595
-1.4031112
1.0681437
-2.9499786
-2.9157536
1.2238712
-0.33610553
0.18888041
-1.4137782
-1.1977917
-0.19394468
-0.32167664
-0.13165206
0.24724725
0.5425038
-1.608608
-3.034325
-4.114096
-1.1782261
-0.5041945
-0.61311287
-1.0481827
0.51842284
1.5470991
-3.7892938
-2.6527157
-0.42008877
0.2013339
-0.8899826
-2.0537534
-2.2303944
1.2603261
2.7772233
2.3321557
2.6055164
1.8928292
0.65837187
-2.205801
2.016473
1.7481079
-0.2212977
-0.6708994
-1.385051
-0.0579648
-0.43475732
-5.0055575
4.213567
-2.3949916
-2.77949
-1.1886213
-3.1905122
-3.9498186
-0.10697211
0.18904458
2.4365258
1.8167201
1.8410132
0.35705897
-0.6788193
3.8563871
1.7939434
1.9277948
1.8491007
-0.28372476
1.890835
1.0710121
0.6411047
-0.73465425
-4.0760274
-2.2622857
1.2296997
1.2826003
0.8511957
-0.93170357
-1.5826985
-1.0146105
4.557273
4.5490685
-3.0177684
3.511913
-6.9278092
-5.00364
0.57464516
-0.60621
-0.57764435
-0.9494225
-4.0232906
0.3147486
9.304785
wgt 1 42 8
-0.12301293
-0.4823498
-0.4700761
0.732288
2.1941953
1.4204262
0.83376867
-0.70646065
-1.7377224
-0.3047921
-2.8005595
-1.0422188
3.9704766
-2.8745127
2.312807
0.45485842
-0.40599754
2.1906087
-1.4501835
1.5302368
1.0846404
-2.5079
-3.6121676
-1.8231224
3.808509
-0.40626583
0.4903565
-0.020839034
-1.4313697
1.0938694
-2.0171845
-0.92256963
3.8699682
-0.4965212
4.4410214
-2.9355178
-0.59997773
0.68648434
-1.4552586
-0.32734674
0.1680226
1.5500188
0.47425187
-1.3542689
1.2762295
-2.3920784
-1.565159
-2.2430596
0.5246962
-2.5256188
-1.0232561
1.4532164
2.0826716
-0.68802065
2.1836088
-0.9954786
5.7354584
0.3715073
0.3125135
0.7067636
-0.94171804
2.6340563
-1.5147743
2.0762312
-3.7774255
2.115305
4.529026
1.5466418
3.6575143
-0.44297183
1.817732
-0.6274429
-5.8736343
-2.1994393
1.1786476
-0.6549355
-0.3557678
2.707028
-0.05151394
0.7701616
2.1229556
0.3439541
1.8876241
7.731519
0.27652517
5.3731346
5.628591
-3.144916
1.7572107
-7.0882707
3.3446612
-3.5887728
3.5350058
0.5644745
-1.036451
-0.35747927
-4.916871
1.1574306
6.11891
-7.2982936
-1.4799944
1.5831057
2.280695
0.5574118
-3.4382877
2.378017
2.8051808
7.8914375
-9.236885
0.522685
1.6191925
0.27058646
-1.1953446
0.79754835
7.3127537
-1.0237434
-4.281384
1.1013248
-3.5718124
-4.8256865
-1.4673203
1.1955522
5.5803328
2.499851
3.5093858
-0.8761846
-1.7193179
-0.7804727
5.2636514
2.886202
-0.69840497
-1.22348
-1.0730127
-2.7888868
0.060755786
-1.4743754
1.9854532
1.9478683
0.51367766
0.24884726
0.05607972
-3.127361
-3.1697924
1.5897453
-1.2614222
3.3719957
-2.3452592
-2.2249238
6.146903
3.5958505
-2.8551328
-1.8947395
-0.4533823
-0.21745323
1.545668
0.32862508
2.304196
-3.3688881
-0.4406359
0.7286514
-0.07770667
1.5473247
3.1674078
-1.5019238
-1.688849
1.6279286
1.5487562
0.8195141
-1.562986
0.29514557
4.7889004
-0.15987702
0.46345645
1.3836845
2.0355647
4.6056824
-0.74755555
-2.4664605
0.62020504
0.46410957
-0.30204758
-4.504589
-2.2944245
0.14403445
-3.040456
1.6051583
-0.2289902
-4.3048363
-4.8287024
-1.4595956
9.34417
1.8732735
4.966861
0.37819383
7.0034747
1.9314864
-2.3083003
3.0056603
-4.9120092
1.3369772
-0.16983475
-2.353862
-3.3715708
-0.7289231
-1.334571
4.258982
-2.375439
2.1236982
1.2405297
-0.20982437
0.47036326
1.2814184
-4.9284854
6.394399
1.7590766
2.362472
5.773212
-0.08542763
6.223825
-0.8292442
-0.9390041
1.5085655
1.7015083
-2.1343427
-3.4014938
-1.4587357
-2.0061998
1.104046
-1.2439882
-12.107812
6.4313016
0.349552
-10.033588
-0.4810778
8.2957535
-2.974264
0.1969327
-3.1567657
-0.4788085
2.7876976
1.0787287
2.6251051
-1.9538068
-3.5620823
1.3871046
-3.8389091
-3.8268754
0.17080426
6.378835
2.0778766
1.7352908
-4.6852784
-1.7839421
0.13828972
-2.6752694
6.0069633
-0.7020749
1.0935596
0.7074738
-2.6503155
-1.1148899
3.1211824
0.41790673
1.8861386
-3.3893125
-3.6482744
-2.4450295
1.8041877
0.027296279
2.1776211
4.8918657
8.946927
-1.5815293
2.1699977
4.3570294
-5.322355
4.198672
-7.3383713
1.0314223
3.170849
-0.69668156
0.27333245
-4.1853476
-3.319744
0.14116918
1.6717913
2.523712
-3.342184
-1.3567483
1.9187747
-1.6638339
3.5745232
0.42927155
-4.240828
1.5880476
-2.4759707
7.2254524
2.4029725
1.3909951
1.3712549
6.366339
1.1200522
-2.463883
-0.3135399
-0.47260657
0.26461253
-0.52019507
3.4809868
1.0091426
5.179785
-4.197433
2.529943
0.6007785
-1.4833475
-3.6467192
-0.6415733
-2.6029654
-1.5165514
-8.079358
-4.1503105
-3.8658164
0.07787863
1.4534124
3.989748
-2.7253327
0.61161023
-0.4751611
0.37793505
-6.7878394
5.5552673
1.7542416
-2.6371856
-1.0507797
6.7029757
5.531015
-2.7276194
wgt 2 8 4
0.039013363
0.2276578
-1.9299742
-0.27323183
18.94208
-3.8562644
-0.19803436
-5.8652124
5.091622
0.31477946
-4.5529637
-7.39482
1.808321
3.0584033
4.1694965
2.0285468
6.7964854
-5.392172
3.322564
-0.6063025
0.4008796
-0.14832152
4.895156
-2.5981543
1.6892679
0.348437
1.9003357
-2.5129812
-7.4816203
-8.535039
0.758285
3.4302115
wgt 3 4 2
3.524426
-10.341215
18.991468
-6.9335876
-4.3234067
-15.193902
15.493639
5.2349105
wgt 4 2 1
7.9013267
6.0581055
```
